
//<![CDATA[

// a few things don't have var in front of them - they update already existing variables the game needs
lanesSide = 1;
patchesAhead = 4;
patchesBehind = 4;
trainIterations = 10000;

// the number of other autonomous vehicles controlled by your network
otherAgents = 0; // max of 10

var num_inputs = (lanesSide * 2 + 1) * (patchesAhead + patchesBehind);
var num_actions = 5;
var temporal_window = 4;
var network_size = num_inputs * temporal_window + num_actions * temporal_window + num_inputs;

var layer_defs = [];
    layer_defs.push({
    type: 'input',
    out_sx: 1,
    out_sy: 1,
    out_depth: network_size
});
layer_defs.push({
    type: 'fc',
    num_neurons: 10,
    activation: 'relu'
});
layer_defs.push({
    type: 'regression',
    num_neurons: num_actions
});

var tdtrainer_options = {
    learning_rate: 0.001,
    momentum: 0.0,
    batch_size: 64,
    l2_decay: 0.01
};

var opt = {};
opt.temporal_window = temporal_window;
opt.experience_size = 3000;
opt.start_learn_threshold = 500;
opt.gamma = 0.7;
opt.learning_steps_total = 10000;
opt.learning_steps_burnin = 1000;
opt.epsilon_min = 0.0;
opt.epsilon_test_time = 0.0;
opt.layer_defs = layer_defs;
opt.tdtrainer_options = tdtrainer_options;

brain = new deepqlearn.Brain(num_inputs, num_actions, opt);

learn = function (state, lastReward) {
brain.backward(lastReward);
var action = brain.forward(state);

draw_net();
draw_stats();

return action;
}

//]]>

/*###########*/
if (brain) {
brain.value_net.fromJSON({"layers":[{"out_depth":140,"out_sx":1,"out_sy":1,"layer_type":"input"},{"out_depth":10,"out_sx":1,"out_sy":1,"layer_type":"fc","num_inputs":140,"l1_decay_mul":0,"l2_decay_mul":1,"filters":[{"sx":1,"sy":1,"depth":140,"w":{"0":-0.11541110375263443,"1":0.1948237730030875,"2":-0.05259106734341064,"3":-0.038322268820552834,"4":-0.11899645619427794,"5":-0.13872658538876714,"6":0.00199301991157358,"7":0.014416059759522981,"8":-0.024007210696325207,"9":-0.1368800100288133,"10":-0.06661490570927615,"11":-0.03547422733337436,"12":-0.01956882626303772,"13":0.14059505641528922,"14":-0.05052543159816937,"15":0.09351721309272656,"16":-0.03983387521851919,"17":0.018660874077652632,"18":0.051855106932929815,"19":0.1881564965098338,"20":0.06429864616732775,"21":-0.057905268124499365,"22":0.04789315741804376,"23":-0.11527485263980605,"24":-0.08967959399725119,"25":0.030299561952481797,"26":-0.0109228328224156,"27":0.029708917848077464,"28":0.021280105918766452,"29":-0.008317162835024199,"30":-0.0295627515116833,"31":-0.07174704995450594,"32":-0.011578047172718018,"33":-0.008863663360940292,"34":0.019725803760783197,"35":-0.012721839177730272,"36":0.1151028747133789,"37":-0.033113293918547546,"38":0.16978875488666198,"39":0.012217919913497403,"40":0.15347819242767452,"41":0.06205277745104966,"42":-0.0656380253320319,"43":-0.19158325488167982,"44":0.07154305342761266,"45":-0.0074097293731797235,"46":-0.035389670287463884,"47":0.013262531230408969,"48":-0.07552431765998016,"49":-0.05566628351151911,"50":0.07597527369779906,"51":-0.007920597103483118,"52":-0.07445968686556863,"53":-0.10717183228141129,"54":-0.005587939190105628,"55":0.03471425815192342,"56":-0.019775668136610948,"57":0.07225811739921163,"58":-0.019403027166193975,"59":0.09536286074881943,"60":-0.18246530944667347,"61":0.11988697621517184,"62":-0.17459020338188244,"63":-0.2319895488831171,"64":-0.16213882947203706,"65":-0.1328834438982248,"66":-0.011216399893010352,"67":-0.051206800138584564,"68":-0.029061656290491924,"69":0.005786370978083029,"70":-0.009201538332495714,"71":0.016294296618925435,"72":-0.08463596722564497,"73":0.12132166864400276,"74":0.02856715692219043,"75":-0.018352159583132747,"76":-0.025403485324047764,"77":-0.06517333212993988,"78":-0.0164352173711923,"79":0.11048986695454044,"80":0.10359823501676804,"81":-0.05543006604336333,"82":0.08495075202928362,"83":-0.06805142485929039,"84":-0.054840936130229806,"85":-0.03306448148883333,"86":-0.05110608931877895,"87":-0.0741185038452904,"88":-0.03666732548074269,"89":0.0439834659801607,"90":0.05701536292548211,"91":0.06923608963892144,"92":0.017139966305516497,"93":-0.02045408612698649,"94":-0.0656699252505934,"95":0.23214989478300044,"96":0.10851372121790791,"97":-0.21175918603014507,"98":0.05138045708206313,"99":-0.009802420419751837,"100":-0.012433418561736692,"101":-0.04296884695242141,"102":0.1864723884584528,"103":0.19575692732426667,"104":-0.015825335856690853,"105":0.046007749106673865,"106":0.04667822002162192,"107":-0.047680448416911415,"108":0.0781979709613769,"109":-0.005107911838859905,"110":0.06309505626984295,"111":-0.13828816801402882,"112":0.03980561188654707,"113":-0.0382847145357852,"114":-0.11099668836864478,"115":-0.0719443271013713,"116":0.06266790600853109,"117":-0.01337024638028258,"118":-0.13356111153511196,"119":0.037444312521401076,"120":0.09477221696465928,"121":0.108680335215515,"122":-0.010904840238863853,"123":0.04110073219426945,"124":0.0901148890835204,"125":-0.0070538440610342975,"126":-0.007682039287239084,"127":-0.03576658924535974,"128":-0.03388810013181034,"129":0.030168517837763156,"130":-0.07031466563828224,"131":0.03540328393482343,"132":0.04490861507097522,"133":-0.03560240788137506,"134":0.07910633479474698,"135":0.00934374246539313,"136":-0.021023387754381735,"137":-0.13866264833901765,"138":-0.04335695589526374,"139":0.06429235577644452}},{"sx":1,"sy":1,"depth":140,"w":{"0":0.012751646880338217,"1":0.056184293746368776,"2":-0.017644117159797253,"3":0.04604989037842779,"4":-0.03462961213054436,"5":0.01325176008565741,"6":0.02744640162866498,"7":-0.014274552212746355,"8":0.07103475932116582,"9":0.12897393318279604,"10":0.060014607242916844,"11":-0.07325663143858677,"12":0.02758877494853329,"13":-0.2443486084981935,"14":0.14130647504997398,"15":-0.04367621903407613,"16":-0.015207819655807591,"17":0.0188903319841587,"18":-0.10210398139700994,"19":-0.004587862983028712,"20":-0.025241216275401917,"21":0.08443350017963151,"22":0.10248704933890813,"23":0.03279607955132091,"24":-0.10219413688700012,"25":0.061394054976942135,"26":-0.09122431762140118,"27":0.0835487752260372,"28":0.15908743361174674,"29":-0.1460207790714162,"30":-0.044134530772087247,"31":0.048909085390216114,"32":-0.003095702715674774,"33":-0.032321145281070066,"34":-0.025442449480199948,"35":-0.01170259952751868,"36":0.04224467330091986,"37":0.05385241146397408,"38":-0.031661565618095716,"39":-0.15368364294267306,"40":0.0225086171250646,"41":-0.28748732164288276,"42":-0.10640554079641133,"43":0.04622679996821878,"44":-0.17471756821442921,"45":0.03006350948015273,"46":-0.05309636499999925,"47":0.0009299244462033661,"48":-0.03794065089303921,"49":-0.022914932745088837,"50":-0.08595733502086624,"51":0.07736719174454522,"52":0.03870944321588301,"53":-0.019866665817784925,"54":-0.14912257513519114,"55":0.07053490776095175,"56":-0.06058229940174228,"57":0.09742834967615349,"58":0.08425276741829794,"59":-0.022155437442784552,"60":-0.15670097870573693,"61":0.15698786479040722,"62":-0.06745308514997274,"63":0.0345696117689063,"64":-0.0676481316763419,"65":-0.1194554669032313,"66":0.104027736458237,"67":0.06550649997200562,"68":-0.0057822677004518075,"69":-0.1032631675074938,"70":0.04063555250352174,"71":0.01243323698017002,"72":0.10751763973770007,"73":0.00213417170898382,"74":0.03538023132448049,"75":-0.2045667005658052,"76":-0.0766606213644152,"77":0.017526283757464515,"78":0.04994460537583415,"79":-0.043392124216882676,"80":0.051154894920332136,"81":0.012558823497897961,"82":0.053516918685293145,"83":0.047050041339823614,"84":0.06498023967369684,"85":0.09309011640140637,"86":-0.07865021378722371,"87":0.04864148442192754,"88":-0.13519904651573403,"89":-0.08805335966030205,"90":0.04559831817802136,"91":0.009543285844979307,"92":-0.002504396041819582,"93":-0.021471199685699077,"94":-0.02209411033172562,"95":-0.03387872087759379,"96":-0.045656256154103785,"97":0.17539001273693616,"98":0.0729378799692407,"99":0.04028214840027596,"100":0.040274787428815725,"101":-0.04527246363507613,"102":-0.0026518695423011795,"103":-0.059815114058834995,"104":-0.018729596155366502,"105":0.05932772156863128,"106":0.01520788857311869,"107":-0.002738628952032407,"108":0.0718905216691808,"109":0.06088937153574831,"110":-0.0031941812654223602,"111":-0.04522918630920293,"112":-0.04999041879922952,"113":0.021076163075744014,"114":0.02166707236957072,"115":-0.0013197929405485823,"116":0.07979138543000698,"117":0.021260544958195394,"118":-0.022726389064645247,"119":-0.003351611971339713,"120":-0.08747836206432223,"121":0.006204180569156127,"122":0.0062625541057000165,"123":0.014230885063918758,"124":0.023126724271723634,"125":0.03722525002818083,"126":0.07566157888283138,"127":0.05405628435812124,"128":0.13759852692412008,"129":-0.044387511151495876,"130":-0.025057621261473696,"131":0.19897322446686813,"132":0.14507526254293343,"133":-0.15287084524267458,"134":-0.06005593598199142,"135":0.10078098726526875,"136":-0.01585134999441665,"137":0.06594682907532404,"138":-0.10077547580348671,"139":-0.1469521617160488}},{"sx":1,"sy":1,"depth":140,"w":{"0":-0.02993868072202985,"1":0.022058751534720172,"2":0.22173528644670845,"3":-0.07004852738764894,"4":0.11043353127198619,"5":0.11131150314209648,"6":-0.04052246343010679,"7":0.08043658109147094,"8":0.036610074785680735,"9":-0.07370242091521881,"10":-0.14199985661825584,"11":-0.02726802873359781,"12":-0.142444925297174,"13":-0.11142341509389762,"14":-0.011369629127747818,"15":-0.06789179928090233,"16":-0.14475057867235958,"17":-0.015975970317733856,"18":0.12228267460144668,"19":-0.15419757020687347,"20":0.06378180952768506,"21":-0.009793936611084604,"22":0.15890831907377057,"23":-0.02788294611925959,"24":0.02878765432348525,"25":0.068853511185103,"26":-0.01600769448879055,"27":-0.04398835942286623,"28":-0.1605486160943394,"29":-0.13501947957027977,"30":0.09701125660470178,"31":0.050095206720080804,"32":-0.13343593123427094,"33":-0.009217167086577917,"34":-0.06939476045129286,"35":0.0006643754633160322,"36":0.1055192028588714,"37":-0.05319438510329048,"38":-0.1351681548503896,"39":-0.0639514752709906,"40":0.06957836181494752,"41":0.03819031695163214,"42":-0.1119252802031767,"43":0.027906451994849403,"44":0.0007718229096310258,"45":0.18997292727532258,"46":-0.01591921468950106,"47":0.1700820050927139,"48":0.040455632968454794,"49":-0.0006003130930727086,"50":0.12777678683097807,"51":0.12393867173260757,"52":-0.27666829696359746,"53":-0.004279539980966082,"54":0.006469298781933823,"55":0.0800591746831152,"56":0.0834500726102319,"57":0.12923752609592,"58":-0.027797782962670273,"59":-0.13980971477945822,"60":-0.0044068726417514584,"61":0.01587317683177607,"62":0.08672730995595025,"63":0.09760247416835738,"64":0.10119990285554879,"65":-0.026462065613132277,"66":-0.02980362667641671,"67":-0.001000519255083022,"68":-0.03167833230392245,"69":-0.16601280146374506,"70":0.0914272057227708,"71":-0.010281569897577624,"72":-0.07345466488343183,"73":-0.027908760142535897,"74":0.03767912216284371,"75":-0.017286864407173804,"76":0.01900772969354657,"77":-0.16161693036210414,"78":0.08115393350208995,"79":0.1100261916482249,"80":0.0908894970038431,"81":0.13235487792853728,"82":-0.046647573061039435,"83":-0.056547628620706884,"84":0.10164617083128191,"85":0.07159533829450275,"86":-0.07224679679837742,"87":-0.023745183906768705,"88":0.045099912275334345,"89":0.07154864421401465,"90":0.04809530267667132,"91":0.1533544977073615,"92":-0.009554806081062846,"93":0.09225350675451241,"94":0.06739010388097526,"95":0.009790943547177796,"96":0.06149068009829429,"97":-0.03349579756434208,"98":-0.07391321448220659,"99":-0.04809690339848799,"100":-0.018677567983856055,"101":-0.19299508808863872,"102":-0.13188711929184205,"103":-0.015123449454758499,"104":0.002411930519407114,"105":0.02168305427368357,"106":0.06655293506889974,"107":0.0707151539808447,"108":-0.03827883352404864,"109":0.0072006041832823305,"110":0.13027892485713283,"111":-0.10687371733124149,"112":0.030905570112990645,"113":0.00006719635638235799,"114":-0.05241720664941956,"115":0.03704679606781004,"116":0.02765452292761635,"117":-0.05592757714408729,"118":0.0019321725273002896,"119":-0.158262484060914,"120":0.06308841496492744,"121":-0.2776744772462569,"122":0.011980457250304706,"123":-0.029518179326701588,"124":-0.07033942532568263,"125":0.09042276611222634,"126":-0.08382369229125704,"127":-0.08303885117876213,"128":-0.013928271185731556,"129":-0.018303721870701846,"130":0.07263223052400498,"131":0.0007433387991578205,"132":0.05020225475550078,"133":-0.005118342874698857,"134":0.02567501498890048,"135":-0.07003351046679915,"136":0.015713576105249736,"137":-0.00744774975696253,"138":-0.007412418295513006,"139":-0.024849140559584686}},{"sx":1,"sy":1,"depth":140,"w":{"0":0.15366572664799552,"1":-0.11987296111064935,"2":0.003716266498911907,"3":0.12398905367560573,"4":0.1943954431920126,"5":0.056457765111737265,"6":0.043169392505141554,"7":-0.006204044877030289,"8":-0.20329439690969742,"9":0.0681176623430585,"10":0.08153687414257318,"11":0.1293151945358785,"12":0.05223302127398422,"13":0.0015690453631447543,"14":-0.029323991301030413,"15":-0.00012477487057136163,"16":0.12330371138891331,"17":-0.04408951325324409,"18":-0.07777292234703627,"19":0.06923877068764024,"20":0.04887176405365543,"21":0.11360990315224755,"22":-0.09673906524473981,"23":-0.025533046263591586,"24":-0.002193264459290081,"25":-0.045940875538311894,"26":0.09768713076257426,"27":0.12700659941204384,"28":-0.18271196331439934,"29":0.0795959365138884,"30":-0.13219236710345308,"31":-0.09496177195826917,"32":0.009384340362801707,"33":-0.04262980851299993,"34":0.13593499044738275,"35":0.07156863243158701,"36":0.09992628928283374,"37":0.085656375249868,"38":0.06011448557774482,"39":-0.22572152747943225,"40":0.1289434642507231,"41":0.004401760619009385,"42":0.014499534369556536,"43":0.015730557887484887,"44":0.028497104148187104,"45":-0.021560142755263537,"46":-0.048132761947740764,"47":-0.0662703157961546,"48":0.13858229121585916,"49":-0.011357953335376878,"50":-0.2333138670665195,"51":0.10317739361862822,"52":0.09044923368165726,"53":-0.0011809558299118832,"54":-0.006809030597873247,"55":-0.10381137251363225,"56":-0.17414859494249388,"57":0.0025190945027316167,"58":0.15090310008896038,"59":0.06544297842869855,"60":-0.1925495446269432,"61":0.036797381964491144,"62":-0.11247731053520568,"63":0.03334925762289587,"64":0.10843439077562755,"65":0.053300612013865524,"66":0.029233046577117127,"67":0.0054460209245297915,"68":0.029203575233995558,"69":-0.1642263005987512,"70":0.024603198474673668,"71":0.009897581723954434,"72":-0.06509393010523798,"73":0.023918436464631952,"74":-0.15649133143132674,"75":-0.15697221908088574,"76":0.059077717589632435,"77":-0.12002480693409728,"78":-0.0031818667065998457,"79":0.18219669977001832,"80":-0.07017625076396478,"81":-0.17013928797502054,"82":-0.13177707345486206,"83":-0.03773914212353931,"84":-0.13797740626604554,"85":0.03106639512961986,"86":-0.044556392321946366,"87":0.059420240065288385,"88":-0.07807981271770724,"89":-0.11052002854008368,"90":-0.11967819285615809,"91":0.06810280027894472,"92":0.14242049860842934,"93":-0.01541039601309658,"94":-0.12047240807467721,"95":-0.017413851457624994,"96":0.01194332764605335,"97":-0.04445639833516531,"98":-0.04115409694500403,"99":0.06940404453334767,"100":0.13018678270178702,"101":0.00931660384478097,"102":0.04299567589207636,"103":-0.08991954849864289,"104":-0.10200661284281858,"105":0.16791896867157732,"106":0.026557404826521077,"107":-0.07384623106325347,"108":0.13016597079772557,"109":0.06277195914518079,"110":-0.038317509238567075,"111":0.05137632285204812,"112":0.12410877001144281,"113":-0.023977973503564686,"114":0.037295523683991076,"115":-0.14088047984725222,"116":-0.025780864228999195,"117":-0.035490558292809546,"118":-0.05373610349768499,"119":0.06789412918183468,"120":0.05349169623336509,"121":-0.05520813421990867,"122":0.19594515910711,"123":0.09448604446745715,"124":0.09068635864393135,"125":0.05939822785434291,"126":0.10120300237050382,"127":0.07732919825079504,"128":-0.04618382563368577,"129":0.0003922225333623621,"130":-0.011790645812308244,"131":0.0909575678823087,"132":-0.010396735032196569,"133":-0.04134752915954592,"134":-0.09367816798054784,"135":-0.15446858569383834,"136":-0.17103555584071045,"137":-0.03414742330172903,"138":-0.06563215576156074,"139":0.029855823401768025}},{"sx":1,"sy":1,"depth":140,"w":{"0":0.02189518220382126,"1":-0.09633465587141443,"2":-0.11676222307213596,"3":-0.028881005716994913,"4":-0.08546689988645406,"5":-0.02787148793268018,"6":0.0239990027984424,"7":-0.07391799579876292,"8":0.05232347841018747,"9":-0.0052130806502809325,"10":-0.033913142783380194,"11":-0.2082265114506998,"12":0.023731837984425522,"13":0.09164238949940538,"14":-0.14209473518060714,"15":0.04421881788415179,"16":0.07544377330345198,"17":0.08579836746294617,"18":0.11682683507657933,"19":0.1566957296199387,"20":0.028882302266254285,"21":0.06261710285627206,"22":0.055816059884648404,"23":-0.12914647382163025,"24":0.06732987974936107,"25":0.11995364817525105,"26":0.022272849626978123,"27":-0.053345192152977325,"28":0.141166605211152,"29":-0.06501014719984777,"30":-0.015112023867405096,"31":0.12098406715979813,"32":0.09778612594764369,"33":0.005867476091012624,"34":0.07200691905758368,"35":-0.03786772150771399,"36":-0.06160156216909162,"37":0.07809647463220055,"38":0.06714142908573974,"39":0.08299524339953267,"40":0.11797421926225195,"41":0.0057099379637198895,"42":-0.032358893008677496,"43":-0.052767696919525924,"44":-0.007745728832882962,"45":0.03476278035157389,"46":0.021279927630869073,"47":-0.05634924188396096,"48":-0.0038383457661738596,"49":0.015109757155118723,"50":0.04288295770447384,"51":-0.007071971378701637,"52":-0.19088433021086482,"53":-0.039217842908626684,"54":-0.08238921949424284,"55":0.19166573706570186,"56":-0.04440041826695987,"57":-0.0576963016402879,"58":-0.0942943841003084,"59":-0.003936497598137977,"60":0.009736852511848849,"61":-0.04614893143254998,"62":0.03880112312245329,"63":-0.00329615233990823,"64":-0.027914847315323742,"65":-0.00904685402686405,"66":0.0895719189990114,"67":0.12398258898210524,"68":-0.05483499300901393,"69":-0.049991849121992185,"70":0.04198124862228101,"71":0.08835896554574289,"72":0.08376929327708045,"73":0.060839880168601014,"74":0.003533401489434535,"75":0.08239147911942439,"76":0.13429806602608668,"77":0.0925594537449983,"78":-0.031151933719828318,"79":-0.045139917425119476,"80":0.07422840761569535,"81":0.024881275450711688,"82":-0.009422898274366744,"83":-0.09427205846969064,"84":-0.10377135826254026,"85":0.02281999765544934,"86":-0.04003387467577156,"87":-0.09081674777350207,"88":0.20077574611333504,"89":-0.021312500890614382,"90":-0.13015979979328618,"91":-0.09260598866214186,"92":-0.010579301579242301,"93":0.19365755188235187,"94":0.07289837998866588,"95":-0.02820406007052877,"96":-0.01675511302808672,"97":-0.016544182500035687,"98":-0.09432101429463469,"99":-0.05213529618058306,"100":0.04832905679184219,"101":0.03609789098094452,"102":-0.07429566362118444,"103":-0.057942194707304856,"104":-0.11374999106668618,"105":-0.07019734919017422,"106":-0.00973215246037617,"107":0.12466599520900737,"108":0.08645270579073211,"109":0.17525583224831898,"110":0.03149546725423575,"111":0.048602886972825735,"112":0.0006309338508758773,"113":-0.00012405648439860065,"114":-0.05178299745321688,"115":-0.040916828890822245,"116":0.15295056058753229,"117":-0.09498461927186519,"118":-0.005428532817740261,"119":0.013110447214106046,"120":0.008159948939212784,"121":0.002589454266235962,"122":0.08310580384204269,"123":-0.009307371656016193,"124":-0.09092244462567425,"125":0.014471909781060346,"126":-0.05856206561207286,"127":-0.12508653560420846,"128":-0.06036215025018927,"129":-0.09301081825636523,"130":-0.16904141402206196,"131":0.1353518933431528,"132":0.07636732447214832,"133":-0.004115286455173082,"134":-0.015138613506033441,"135":-0.09509069940228691,"136":-0.004515314218716139,"137":0.02466852164147362,"138":0.047677861752307434,"139":0.0010829656802777777}},{"sx":1,"sy":1,"depth":140,"w":{"0":-0.0018208445650758401,"1":-0.02452792120633973,"2":-0.014807193022565862,"3":-0.11097741889837641,"4":-0.10532154273405059,"5":-0.0617497694866246,"6":0.02048619015571831,"7":0.04374649761262982,"8":0.05504336561560081,"9":-0.1391239327307173,"10":0.029130822199170094,"11":0.22059216878557236,"12":-0.09853341489528646,"13":-0.11468110464573834,"14":0.020809001128637178,"15":-0.09507989965716862,"16":-0.07349909642570124,"17":0.08394319058186828,"18":-0.16008030382970517,"19":-0.04326439933262673,"20":0.16993289805875386,"21":0.07984682472537673,"22":-0.21443686623962535,"23":0.08404063391027065,"24":0.059217663935407935,"25":0.02194063595210965,"26":-0.02557175315249945,"27":-0.015270295580457513,"28":0.11725035178047348,"29":-0.11613419641799343,"30":-0.1257943603047027,"31":0.08650992404422339,"32":-0.04761906792478681,"33":0.12529574077854425,"34":-0.03630117190811915,"35":-0.09878035203697515,"36":0.01626242470794673,"37":0.02404300779933985,"38":0.08885858677271187,"39":-0.04219864280640094,"40":0.17589576877118016,"41":-0.00006803432872583666,"42":-0.12190942122281544,"43":0.048330149235349895,"44":-0.039125748936938584,"45":-0.024935155758642434,"46":-0.08772105944506414,"47":-0.09768748910514201,"48":-0.14348605666162131,"49":0.07970138941355835,"50":0.07115068637668402,"51":-0.034201455868719144,"52":-0.13953981183069047,"53":-0.2486334387981597,"54":-0.07330438979842249,"55":0.14225634644886015,"56":-0.05504432888732544,"57":0.1002351659929031,"58":0.07009528208555485,"59":-0.026930688770812273,"60":0.040992684147494636,"61":-0.03019211913775032,"62":-0.11647794231544871,"63":0.06718976266324968,"64":-0.02680832967348352,"65":0.03082571861907154,"66":-0.011870692820399544,"67":-0.11332529163597915,"68":0.10283749895945059,"69":-0.04260548628621759,"70":0.05963805173826426,"71":-0.11772193827545763,"72":-0.17553704253429406,"73":0.024157822436605365,"74":-0.14493276024925147,"75":-0.06163016439989862,"76":-0.003184190912711926,"77":0.0492441475905953,"78":-0.1088999764095393,"79":0.00978652536109915,"80":0.13916950174903528,"81":0.17754707850686385,"82":-0.040672750226225914,"83":0.05264529727066386,"84":0.12791642693800293,"85":0.013377846849558528,"86":0.048870551375831135,"87":0.04311664730633587,"88":0.020534535227860504,"89":0.06938281726904905,"90":0.019824348721130976,"91":-0.17582128541285683,"92":0.008012204656590746,"93":0.05981639075072087,"94":-0.08799310038275346,"95":0.001458537961072006,"96":-0.17985459665720718,"97":-0.0284756829547179,"98":0.1082529947030576,"99":-0.001453113035154468,"100":-0.05389931382148582,"101":-0.05218898515465703,"102":-0.05772084514515832,"103":-0.008346412057852885,"104":-0.06542803002305222,"105":0.025102486873937745,"106":-0.010688290340334484,"107":-0.029307718080406418,"108":0.17435490230283662,"109":-0.01924467996647892,"110":0.05520567958687956,"111":-0.0674084947031089,"112":-0.1690848088954999,"113":-0.031250581614561394,"114":0.008248306325152988,"115":0.029298248787111566,"116":-0.11387403677944688,"117":-0.009967748166052373,"118":0.18127548606832244,"119":-0.07159315372511782,"120":0.01245055268107711,"121":0.08125702874061302,"122":0.028061998020904092,"123":0.04449444332957225,"124":-0.07882547618148333,"125":0.08112852201055515,"126":0.07937682559719335,"127":0.18595270608145362,"128":0.08883461072324157,"129":-0.08230440114568677,"130":0.09622725972105664,"131":-0.000017574182599283755,"132":-0.04942454303934964,"133":-0.07052093908026112,"134":0.10330036135293737,"135":0.05748687291548147,"136":-0.015907131220556644,"137":0.03305456700585643,"138":0.07926684436279492,"139":0.03894294190282014}},{"sx":1,"sy":1,"depth":140,"w":{"0":0.028923985411137183,"1":-0.02322312243876062,"2":0.08874138980854969,"3":-0.05894889189929705,"4":0.018972247317849175,"5":0.04330101980762195,"6":0.11916172503057375,"7":-0.009757051310604576,"8":0.02370681973919892,"9":0.011539621352446476,"10":0.04287330833270441,"11":-0.011865551614892307,"12":-0.2197241300586879,"13":-0.08952286339186577,"14":-0.23044139877906553,"15":-0.1317950154564625,"16":0.002537913534034672,"17":0.06948369016833088,"18":-0.039110329753051024,"19":-0.00184393640098684,"20":0.04411084553980159,"21":-0.059646525289572434,"22":0.07419055866538876,"23":0.028036423847645073,"24":-0.05841908210315998,"25":0.026559614001997092,"26":0.19998901657928062,"27":-0.09814733453124165,"28":-0.02378491940330375,"29":0.12878423307256498,"30":0.007234469155978017,"31":0.0232652081475635,"32":-0.038345005818242114,"33":-0.02566446589167666,"34":0.16629767158672337,"35":-0.03318995313686857,"36":0.05496944136924849,"37":0.019633992334748097,"38":0.0722351474459202,"39":-0.137195746197623,"40":0.0843534415333248,"41":-0.17731003608903448,"42":0.07069425371499635,"43":-0.16042602386094607,"44":-0.03837933072592332,"45":0.15358120421582955,"46":0.0210105149107632,"47":-0.1151531659769193,"48":0.17843698746688738,"49":0.08470924869435857,"50":-0.004496069738036182,"51":-0.08391469753282514,"52":-0.010405758970514586,"53":-0.05170440417888333,"54":0.04646853697711057,"55":0.14349736333684432,"56":0.1387377408673763,"57":-0.030862476098026524,"58":0.010808284471834104,"59":-0.04806245928158234,"60":-0.06937391101128637,"61":-0.07502228012468126,"62":-0.006398831809552798,"63":0.03467895800573518,"64":-0.0031754238309608007,"65":0.009406104796600458,"66":-0.09663111338556084,"67":0.005746093659022031,"68":0.03205454370619697,"69":0.06604895806194834,"70":-0.09121445022576614,"71":0.10991798200894645,"72":0.02144627254342453,"73":-0.05347065220485979,"74":-0.030965805968011153,"75":-0.0918653708121352,"76":0.23454712027074084,"77":-0.04644876422391007,"78":-0.020833338482667666,"79":0.0020853006464163133,"80":-0.05114408447485058,"81":-0.09068579792367956,"82":-0.1058970346655711,"83":-0.10748587385862297,"84":0.059224044698786685,"85":0.02699489538445543,"86":-0.06628093618955144,"87":-0.09680863755185523,"88":-0.05252493208486413,"89":-0.045341115993978526,"90":-0.07276346657083879,"91":0.0676137207185797,"92":-0.09170083931720036,"93":-0.08286114926929782,"94":-0.06072510688531742,"95":-0.12181090274442037,"96":-0.10133762199983602,"97":-0.10812890769034714,"98":-0.12631639441134657,"99":0.04302141904824302,"100":0.14271158366828107,"101":0.1779519569848735,"102":0.015044866595978583,"103":0.0057418648078990135,"104":-0.013051083473249033,"105":0.02418104673893141,"106":0.05222276467416929,"107":0.009983564557950728,"108":-0.06564826654247978,"109":-0.0465909869604583,"110":-0.07504142898861567,"111":0.014864838162907427,"112":0.07844043363316805,"113":0.058996764766182465,"114":-0.039826102434839986,"115":0.006603783159457461,"116":-0.04227817419165382,"117":0.015020017116580438,"118":0.02152182029598043,"119":-0.04888630719922914,"120":0.07812473996814522,"121":-0.06557385694569241,"122":0.09226593130626631,"123":-0.06408979407515106,"124":0.012923116765360967,"125":-0.029484668302850816,"126":-0.01720385050369624,"127":-0.09871525318396401,"128":0.08479635049033124,"129":-0.0039030560701340286,"130":-0.0459457669032871,"131":-0.07787450023974282,"132":-0.003408983778866559,"133":-0.07042239326615767,"134":-0.006324062064746855,"135":0.012913753588488706,"136":-0.10373445477892729,"137":0.004083311285471666,"138":0.13847036348930528,"139":-0.024380140945598885}},{"sx":1,"sy":1,"depth":140,"w":{"0":0.040813783234373124,"1":-0.08016310010141908,"2":-0.14373658364941214,"3":-0.07733653026011426,"4":0.04076379236459279,"5":-0.03029687058629566,"6":-0.02202375688000413,"7":0.05653704309088229,"8":0.024798198585974488,"9":0.08176516342893664,"10":-0.06540011925782047,"11":0.0008749547186377497,"12":0.004854382958691786,"13":0.08654867960314733,"14":0.04046522781865471,"15":0.003987549387125013,"16":-0.12151040324826023,"17":0.02831902566544999,"18":-0.06064663096174993,"19":-0.13194228321307863,"20":-0.07074200059670901,"21":-0.041005449655927936,"22":0.12772342426705124,"23":0.03938480823754979,"24":0.0006569317898350376,"25":-0.03522263403381918,"26":0.011174878583386356,"27":-0.10909464342760129,"28":0.05885823800878144,"29":-0.03367994531066389,"30":-0.027307304391244073,"31":-0.04515665991773838,"32":-0.031691313587331134,"33":-0.15400172804193946,"34":-0.17076377376989194,"35":0.07986364361292109,"36":0.06340167639062078,"37":-0.0954690385408686,"38":0.02287785052764199,"39":0.034178957423120826,"40":0.04856650623142468,"41":0.07220563281084984,"42":0.09136155722796035,"43":0.058407633064594545,"44":0.021199216308083597,"45":0.015574514385727068,"46":0.03752251229631651,"47":-0.07773760658454121,"48":-0.02152598912056531,"49":0.18846329775818496,"50":0.030153265015897115,"51":-0.0998773603645562,"52":-0.04753583336701415,"53":-0.03635882298554288,"54":-0.07329979443730081,"55":0.024110897011031824,"56":0.1050215600795351,"57":0.007737397497792356,"58":0.10239336945036845,"59":-0.053685881709880354,"60":-0.015697898319957944,"61":-0.12108825072590589,"62":0.13959943880103376,"63":0.01654617779645539,"64":0.02727299855235308,"65":0.12038963000651261,"66":0.010249488467820488,"67":0.0690111785678707,"68":-0.010988415026460214,"69":0.039831929918319346,"70":-0.03744586414326498,"71":0.2312315098607699,"72":0.007924579295621539,"73":-0.09099482893555497,"74":0.007561847055893205,"75":-0.02886657610708402,"76":-0.008981736067868869,"77":0.025307260475625624,"78":-0.08964913895544631,"79":-0.06726440670371607,"80":0.09281093574688029,"81":-0.00005383806387935792,"82":0.06687333418902534,"83":0.11084493524748829,"84":-0.04837018503156051,"85":-0.02001309989680689,"86":-0.1254827025903405,"87":-0.00675380922878239,"88":-0.12386427425293449,"89":-0.027185023894018057,"90":0.10671487118972388,"91":0.03778134469260142,"92":-0.00532890624556056,"93":-0.007589981904723383,"94":0.007206418733070833,"95":0.01780834139260251,"96":-0.1320011406929968,"97":-0.06648078987062507,"98":-0.011725485879805802,"99":-0.15670627139718504,"100":0.001365021888290314,"101":-0.06589716812848274,"102":0.10684204256687423,"103":-0.11189282583739901,"104":0.06684037553449315,"105":-0.056673188334148646,"106":0.004803472718885559,"107":-0.005585465010898553,"108":-0.07817735725846725,"109":-0.02484333459675902,"110":0.06367159024795002,"111":0.07224644699889012,"112":0.026107317987866106,"113":0.015375761128867634,"114":0.08054561873256864,"115":-0.07869645789513377,"116":0.00014047182588256845,"117":-0.041080668158388824,"118":-0.02843880878812634,"119":0.14493156086257544,"120":-0.18662105067524998,"121":0.009428697370352816,"122":-0.08805701598508937,"123":-0.03983101086060086,"124":0.027301347722970208,"125":-0.04215342375709152,"126":0.09825620985649805,"127":0.038384264990575206,"128":-0.08905673377947816,"129":0.010885722258174402,"130":-0.07408187740046802,"131":0.015294835992069728,"132":0.10754896360857913,"133":0.02209564313715688,"134":0.006064624851574669,"135":-0.1100107414081474,"136":-0.058756746402045396,"137":-0.1458852115611072,"138":-0.10583953906077782,"139":-0.048590761559610764}},{"sx":1,"sy":1,"depth":140,"w":{"0":0.010642281735609493,"1":0.11898416892873745,"2":-0.10726722029662515,"3":-0.11535353613465185,"4":0.09257665317681892,"5":0.007777050763428671,"6":-0.14994491882240404,"7":-0.20957272390847645,"8":0.06402818568359116,"9":0.1332886933174183,"10":-0.22329334671159917,"11":-0.0011830965433642373,"12":-0.1463302615673057,"13":0.04074236339182175,"14":-0.000729632250722406,"15":-0.041443256188261016,"16":-0.16168961242852775,"17":-0.010799735095942264,"18":-0.14052814090207555,"19":0.12749767111344879,"20":0.20379791283233506,"21":0.0894021327475393,"22":0.15430205583795523,"23":0.12559807615402424,"24":0.04493839405506488,"25":-0.0425300231011688,"26":0.014912387604872596,"27":0.054226367117039716,"28":-0.01844358757445176,"29":-0.009837538835847296,"30":0.05459404411649677,"31":-0.005560878329648748,"32":-0.12442589908862266,"33":0.10346515252048062,"34":-0.006498730445427545,"35":-0.052278314881541346,"36":0.04282871210176593,"37":0.07988245673432443,"38":0.12761642587021763,"39":-0.013209108228198107,"40":-0.037356049517688776,"41":0.07561634498136158,"42":0.13389248460672662,"43":0.13139625758807466,"44":-0.08147906162103342,"45":-0.1083799020768706,"46":-0.05047496719135332,"47":0.0962736906566196,"48":0.025969421672626582,"49":-0.11151619844699415,"50":-0.07918046578595515,"51":-0.11574631524458838,"52":-0.05463085892643998,"53":-0.09062827302201695,"54":0.07596068172373456,"55":0.14603140005576623,"56":-0.10493800266350743,"57":0.08973582715653725,"58":0.1084342627861792,"59":0.05277630772929154,"60":0.09477458887351999,"61":-0.05807927609391972,"62":0.1001868176715551,"63":0.01081139640241227,"64":-0.061651938829330434,"65":-0.00846757868304967,"66":-0.05166021608510719,"67":0.09464064105336233,"68":0.05682771477566622,"69":0.17057030086875352,"70":-0.028954453594610113,"71":0.04931845454568337,"72":-0.006262554398225156,"73":0.06570441543913902,"74":-0.016007014718485185,"75":-0.15699066501295256,"76":-0.10998580171042228,"77":-0.04181227768745622,"78":-0.011704591319352845,"79":-0.056466875396017,"80":0.0484556289461229,"81":0.2823430715474676,"82":0.05747105234669547,"83":-0.04191691179754075,"84":0.09991642286597228,"85":0.03695899277630967,"86":-0.14780892471817803,"87":-0.05272850152339767,"88":-0.02721523894617656,"89":-0.04710794626123128,"90":0.2091301785458514,"91":0.13458221775083473,"92":0.05755924947659696,"93":0.00021922350181542995,"94":0.016515361516468832,"95":0.01751432837448921,"96":0.028899966322482627,"97":-0.004281434775643862,"98":0.12382846387988306,"99":0.07334559451238887,"100":0.145235973368532,"101":-0.08576201065627882,"102":-0.015834577511727014,"103":-0.09286764212001247,"104":-0.0467134697166659,"105":-0.052748676023506524,"106":0.14132127877852377,"107":-0.010541600539144479,"108":-0.033828917907327824,"109":0.04689818251992668,"110":-0.004555354940193503,"111":0.08674884545843631,"112":-0.18394278970570752,"113":0.02120463291223155,"114":-0.06364611190922359,"115":0.10450899714619025,"116":-0.05335485256388891,"117":-0.016477356119038486,"118":-0.07730818446482293,"119":-0.1222349359705513,"120":0.029487291667349473,"121":-0.2503994266353695,"122":-0.03947647389643563,"123":-0.0013716726410700284,"124":0.07571263885723056,"125":0.029275314940673793,"126":0.02191349584749824,"127":0.011524368124428303,"128":0.09980023703338396,"129":0.14348105633514047,"130":0.011339152792197039,"131":-0.0350741016568213,"132":0.0514612838586185,"133":-0.06517878219365635,"134":0.06488617734418835,"135":-0.08877807418301689,"136":-0.05317252418086999,"137":-0.05203001040108707,"138":-0.09400430133186873,"139":0.021797187383398513}},{"sx":1,"sy":1,"depth":140,"w":{"0":0.08508737448081391,"1":-0.060527801733555694,"2":-0.02375486501590437,"3":0.11214244531943289,"4":0.029084114969720576,"5":-0.09910851831683766,"6":-0.13759395677095404,"7":0.014608504803335911,"8":-0.006103999198674856,"9":0.09775603164471536,"10":0.024580798093239296,"11":0.019096994461009757,"12":0.045305860829481015,"13":-0.07172341430241472,"14":-0.06819411008630448,"15":-0.17165647356278058,"16":0.014007320167839793,"17":-0.006453701766818863,"18":-0.05018904056800304,"19":0.0013012412047262896,"20":0.011887372891178409,"21":-0.02861220510281063,"22":-0.04859161502301433,"23":0.004593757772914156,"24":-0.20776664039823672,"25":-0.1221917607755025,"26":0.030200360655669313,"27":0.07356959091627094,"28":0.05227460911778943,"29":-0.10829746932277105,"30":-0.03430211529774272,"31":0.008595472564834597,"32":0.04709145301092378,"33":-0.127301725829512,"34":-0.029388119621348036,"35":-0.019426065590547215,"36":0.05857301961984042,"37":-0.19972047470376805,"38":0.00042138718288366195,"39":-0.015572846505204222,"40":0.09835572144735918,"41":-0.21656544015449303,"42":0.07749242293648646,"43":0.01455410937086843,"44":0.02901880045936602,"45":0.11891898013610294,"46":-0.027570509258747867,"47":0.10417363802004037,"48":-0.005670613704291278,"49":-0.11452020131992574,"50":-0.12408401266265116,"51":0.03472384638932394,"52":0.018404451126168397,"53":0.04133158117673675,"54":-0.13886904318864823,"55":-0.1324460261727072,"56":-0.1401700568112279,"57":0.012387961395823719,"58":-0.05502117410483786,"59":0.1451649558994911,"60":-0.09699604878904125,"61":-0.03986157113118053,"62":-0.0577468637399927,"63":-0.0000946281134955616,"64":-0.04357465637786903,"65":0.10252404898049819,"66":0.18112670456654767,"67":0.13020930095811892,"68":0.12826778634172606,"69":-0.05188461702868846,"70":-0.049973076172263466,"71":-0.07709454941745393,"72":-0.04571983444467133,"73":-0.01752796210284919,"74":-0.09778079803403285,"75":-0.04104147136181807,"76":0.0114249194650132,"77":0.0516620097248708,"78":0.009976797696964457,"79":0.016560787704862842,"80":-0.1890628743906766,"81":0.10779551647969778,"82":0.02797021126259636,"83":0.2066006015277903,"84":0.22445940657531493,"85":-0.004768079736591097,"86":0.0693522730088385,"87":0.04620216646970627,"88":-0.13528786041747767,"89":-0.06115375953286126,"90":0.018615454945373217,"91":0.0172830935889682,"92":0.0022567791289880147,"93":0.02147484440892278,"94":-0.06671298550226962,"95":-0.014159204144799337,"96":0.05225259609795239,"97":0.08708528839170943,"98":0.031791989163177936,"99":0.07836846819793312,"100":0.03547192631308778,"101":-0.11266491470483235,"102":0.033994942819015356,"103":-0.020553849980453287,"104":0.011282420942159059,"105":-0.00641649324768726,"106":0.00907845921360562,"107":0.03794855338128996,"108":-0.011596659932516741,"109":-0.13181704272197012,"110":0.04379367327173412,"111":0.03204679570733926,"112":0.150058263232163,"113":-0.07799214499089199,"114":0.020724267827908004,"115":-0.013513843883457196,"116":0.004198678705963418,"117":-0.16337772047456606,"118":0.023929728795113625,"119":-0.04754908960490949,"120":-0.17252718429596595,"121":-0.20419517026091644,"122":-0.07420418995806366,"123":0.18909330048839726,"124":0.16041853027594916,"125":0.05380730721050524,"126":0.06694767642272374,"127":0.10351563169196466,"128":0.1346348823996006,"129":0.13454011965802748,"130":-0.10533941991390734,"131":-0.11669056203309287,"132":0.11182389836940465,"133":0.038716616260123474,"134":0.012865538013907812,"135":0.10004077285013986,"136":0.01031431739586854,"137":-0.029146320835086063,"138":-0.012708096238502062,"139":-0.05539655387727657}}],"biases":{"sx":1,"sy":1,"depth":10,"w":{"0":0.1,"1":0.1,"2":0.1,"3":0.1,"4":0.1,"5":0.1,"6":0.1,"7":0.1,"8":0.1,"9":0.1}}},{"out_depth":10,"out_sx":1,"out_sy":1,"layer_type":"relu"},{"out_depth":5,"out_sx":1,"out_sy":1,"layer_type":"fc","num_inputs":10,"l1_decay_mul":0,"l2_decay_mul":1,"filters":[{"sx":1,"sy":1,"depth":10,"w":{"0":0.6252990194507181,"1":0.31282457371953715,"2":0.25642729138249576,"3":0.1023242605330409,"4":-0.15799893343933666,"5":0.3214244837812259,"6":0.698660861547016,"7":0.12984302525891941,"8":-0.07513603185199368,"9":-0.3477914807548106}},{"sx":1,"sy":1,"depth":10,"w":{"0":0.04207060685850025,"1":0.11726983150582009,"2":-0.422795405368667,"3":0.1603552603747932,"4":-0.15895478573410282,"5":-0.07110104166421936,"6":-0.4799107696204752,"7":0.3878174412199451,"8":0.20748051648593588,"9":-0.3121888150147505}},{"sx":1,"sy":1,"depth":10,"w":{"0":0.27586120931089236,"1":-0.11088985631538689,"2":-0.4385739109533739,"3":-0.1127259813833765,"4":-0.11210764961053313,"5":0.043730915860735874,"6":0.3353037275246969,"7":0.45890446459474565,"8":-0.5133175976100719,"9":-0.32077578906314586}},{"sx":1,"sy":1,"depth":10,"w":{"0":0.007863431612480746,"1":0.35967032629869927,"2":-0.6540619451634019,"3":-0.0950339737321487,"4":0.46122578136458825,"5":-0.013339405631301548,"6":0.20525480527936826,"7":-0.3217253968299767,"8":0.10787975201317855,"9":-0.19078328741469572}},{"sx":1,"sy":1,"depth":10,"w":{"0":-0.4172922945458857,"1":0.29746964212584154,"2":0.21627609737843995,"3":0.5872392803936515,"4":0.4515171034915351,"5":0.4262244425742962,"6":0.19766216358172647,"7":-0.09031012171032074,"8":0.05562598248216566,"9":0.5320385800204241}}],"biases":{"sx":1,"sy":1,"depth":5,"w":{"0":0,"1":0,"2":0,"3":0,"4":0}}},{"out_depth":5,"out_sx":1,"out_sy":1,"layer_type":"regression","num_inputs":5}]});
}